{"learner":{"attributes":{"scikit_learn":"{\"_estimator_type\": \"regressor\"}"},"feature_names":[],"feature_types":[],"gradient_booster":{"model":{"cats":{"enc":[],"feature_segments":[],"sorted_idx":[]},"gbtree_model_param":{"num_parallel_tree":"1","num_trees":"20"},"iteration_indptr":[0,1,2,3,4,5,6,7,8,9,10,11,12,13,14,15,16,17,18,19,20],"tree_info":[0,0,0,0,0,0,0,0,0,0,0,0,0,0,0,0,0,0,0,0],"trees":[{"base_weights":[-6.677096E-2,-2.0705442E-1,3.964449E-1,-3.7110128E-2,-1.6278331E-1,2.0934953E-1,7.843724E-1,4.7277594E-3,-1.0437046E-2,-1.1350294E-2,1.1858341E-2,2.790121E-2,-1.2269637E-2],"categories":[],"categories_nodes":[],"categories_segments":[],"categories_sizes":[],"default_left":[0,0,0,0,0,0,0,0,0,0,0,0,0],"id":0,"left_children":[1,3,5,-1,7,9,11,-1,-1,-1,-1,-1,-1],"loss_changes":[1.0609092E1,5.498264E0,2.5938096E0,0E0,7.2310104E0,3.0998094E0,2.4663882E0,0E0,0E0,0E0,0E0,0E0,0E0],"parents":[2147483647,0,0,1,1,2,2,4,4,5,5,6,6],"right_children":[2,4,6,-1,8,10,12,-1,-1,-1,-1,-1,-1],"split_conditions":[8.237531E-1,-1.7332091E0,3.970333E-1,-3.7110128E-2,-3.749447E-1,-1.0571549E0,1.7323116E0,4.7277594E-3,-1.0437046E-2,-1.1350294E-2,1.1858341E-2,2.790121E-2,-1.2269637E-2],"split_indices":[9,2,1,0,2,3,9,0,0,0,0,0,0],"split_type":[0,0,0,0,0,0,0,0,0,0,0,0,0],"sum_hessian":[1.61E2,1.24E2,3.7E1,4E0,1.2E2,2.6E1,1.1E1,4.4E1,7.6E1,6E0,2E1,1E1,1E0],"tree_param":{"num_deleted":"0","num_feature":"10","num_nodes":"13","size_leaf_vector":"1"}},{"base_weights":[-9.226005E-4,-1.19364895E-1,3.2842726E-1,2.1193951E-1,-2.6281852E-1,-3.0275242E-2,6.714904E-1,-1.1674653E-2,1.3049346E-2,-1.0539978E-2,1.1757401E-2,-5.9478814E-3,1.6408116E-2,-2.3947598E-3,2.7337966E-2],"categories":[],"categories_nodes":[],"categories_segments":[],"categories_sizes":[],"default_left":[0,0,0,0,0,0,0,0,0,0,0,0,0,0,0],"id":1,"left_children":[1,3,5,7,9,11,13,-1,-1,-1,-1,-1,-1,-1,-1],"loss_changes":[6.046581E0,5.4737587E0,5.065691E0,4.8616314E0,4.7739315E0,2.144691E0,3.8558264E0,0E0,0E0,0E0,0E0,0E0,0E0,0E0,0E0],"parents":[2147483647,0,0,1,1,2,2,3,3,4,4,5,5,6,6],"right_children":[2,4,6,8,10,12,14,-1,-1,-1,-1,-1,-1,-1,-1],"split_conditions":[6.6266596E-1,-4.035921E-1,-8.7876745E-2,-1.1227684E0,1.2456349E0,7.601331E-1,-1.007893E0,-1.1674653E-2,1.3049346E-2,-1.0539978E-2,1.1757401E-2,-5.9478814E-3,1.6408116E-2,-2.3947598E-3,2.7337966E-2],"split_indices":[9,1,7,1,8,6,1,0,0,0,0,0,0,0,0],"split_type":[0,0,0,0,0,0,0,0,0,0,0,0,0,0,0],"sum_hessian":[1.53E2,1.13E2,4E1,3.4E1,7.9E1,2E1,2E1,9E0,2.5E1,7E1,9E0,1.6E1,4E0,5E0,1.5E1],"tree_param":{"num_deleted":"0","num_feature":"10","num_nodes":"15","size_leaf_vector":"1"}},{"base_weights":[2.8730776E-2,-1.13317646E-1,4.6561697E-1,-1.8346368E-1,4.9821234E-1,5.3616352E-2,7.1406883E-1,-4.3289942E-6,-1.1111242E-2,8.6539E-3,4.2081773E-2,9.479691E-3,-1.1778258E-2,5.1940656E-3,2.9730726E-2],"categories":[],"categories_nodes":[],"categories_segments":[],"categories_sizes":[],"default_left":[0,0,0,0,0,0,0,0,0,0,0,0,0,0,0],"id":2,"left_children":[1,3,5,7,9,11,13,-1,-1,-1,-1,-1,-1,-1,-1],"loss_changes":[9.361611E0,4.981594E0,3.7491207E0,3.5291812E0,1.8720148E0,1.8802232E0,3.274148E0,0E0,0E0,0E0,0E0,0E0,0E0,0E0,0E0],"parents":[2147483647,0,0,1,1,2,2,3,3,4,4,5,5,6,6],"right_children":[2,4,6,8,10,12,14,-1,-1,-1,-1,-1,-1,-1,-1],"split_conditions":[6.474847E-1,1.1876343E0,-8.861394E-2,3.2695226E-2,1.9050602E0,3.0631492E-2,-5.3766257E-1,-4.3289942E-6,-1.1111242E-2,8.6539E-3,4.2081773E-2,9.479691E-3,-1.1778258E-2,5.1940656E-3,2.9730726E-2],"split_indices":[9,0,7,6,0,2,6,0,0,0,0,0,0,0,0],"split_type":[0,0,0,0,0,0,0,0,0,0,0,0,0,0,0],"sum_hessian":[1.49E2,1.13E2,3.6E1,1.02E2,1.1E1,1.4E1,2.2E1,5.2E1,5E1,1E1,1E0,9E0,5E0,8E0,1.4E1],"tree_param":{"num_deleted":"0","num_feature":"10","num_nodes":"15","size_leaf_vector":"1"}},{"base_weights":[2.1592602E-2,-2.7787393E-1,1.9372341E-1,-1.5657167E-1,-1.0619298E0,1.7983168E-2,6.183213E-1,-7.5131524E-3,1.2434008E-2,-6.720561E-3,-3.448886E-2,1.939081E-2,-4.030009E-3,-1.3532436E-2,2.2470305E-2],"categories":[],"categories_nodes":[],"categories_segments":[],"categories_sizes":[],"default_left":[0,0,0,0,0,0,0,0,0,0,0,0,0,0,0],"id":3,"left_children":[1,3,5,7,9,11,13,-1,-1,-1,-1,-1,-1,-1,-1],"loss_changes":[8.610701E0,5.635305E0,7.898488E0,2.9982817E0,3.3033276E-1,7.36097E0,4.670394E0,0E0,0E0,0E0,0E0,0E0,0E0,0E0,0E0],"parents":[2147483647,0,0,1,1,2,2,3,3,4,4,5,5,6,6],"right_children":[2,4,6,8,10,12,14,-1,-1,-1,-1,-1,-1,-1,-1],"split_conditions":[-1.8249984E-1,-3.3903307E-1,5.4285824E-1,1.1825308E0,-1.8919462E0,1.486271E-1,-8.7876745E-2,-7.5131524E-3,1.2434008E-2,-6.720561E-3,-3.448886E-2,1.939081E-2,-4.030009E-3,-1.3532436E-2,2.2470305E-2],"split_indices":[7,7,9,0,4,7,7,0,0,0,0,0,0,0,0],"split_type":[0,0,0,0,0,0,0,0,0,0,0,0,0,0,0],"sum_hessian":[1.65E2,6E1,1.05E2,5.3E1,7E0,7.5E1,3E1,4.6E1,7E0,1E0,6E0,1.4E1,6.1E1,3E0,2.7E1],"tree_param":{"num_deleted":"0","num_feature":"10","num_nodes":"15","size_leaf_vector":"1"}},{"base_weights":[-1.4649357E-2,2.0762363E-1,-1.7719299E-1,1.046552E0,9.951346E-2,-2.5000092E-1,7.946233E-1,-2.0479534E-3,4.2886052E-2,9.735486E-3,-8.670379E-3,-1.1562937E-2,3.5230455E-4,4.8747226E-3,3.6843E-2],"categories":[],"categories_nodes":[],"categories_segments":[],"categories_sizes":[],"default_left":[0,0,0,0,0,0,0,0,0,0,0,0,0,0,0],"id":4,"left_children":[1,3,5,7,9,11,13,-1,-1,-1,-1,-1,-1,-1,-1],"loss_changes":[6.0703425E0,6.3353186E0,7.061981E0,3.513236E0,5.6886334E0,3.2303061E0,1.7185483E0,0E0,0E0,0E0,0E0,0E0,0E0,0E0,0E0],"parents":[2147483647,0,0,1,1,2,2,3,3,4,4,5,5,6,6],"right_children":[2,4,6,8,10,12,14,-1,-1,-1,-1,-1,-1,-1,-1],"split_conditions":[-2.9377893E-1,-1.1401609E0,1.3060018E0,-8.6318564E-1,4.460722E-1,2.7857593E-1,-8.4323025E-1,-2.0479534E-3,4.2886052E-2,9.735486E-3,-8.670379E-3,-1.1562937E-2,3.5230455E-4,4.8747226E-3,3.6843E-2],"split_indices":[2,8,0,2,1,4,6,0,0,0,0,0,0,0,0],"split_type":[0,0,0,0,0,0,0,0,0,0,0,0,0,0,0],"sum_hessian":[1.66E2,7E1,9.6E1,7E0,6.3E1,9E1,6E0,2E0,5E0,4E1,2.3E1,5.9E1,3.1E1,3E0,3E0],"tree_param":{"num_deleted":"0","num_feature":"10","num_nodes":"15","size_leaf_vector":"1"}},{"base_weights":[4.707199E-4,-2.717594E-1,1.9722645E-1,-3.7056082E-1,2.6136127E-1,2.3601089E-2,6.274825E-1,-1.0442982E-3,-1.7894363E-2,-5.036226E-3,1.7758202E-2,2.3041174E-2,-2.0097427E-3,-1.1605539E-2,2.0325745E-2],"categories":[],"categories_nodes":[],"categories_segments":[],"categories_sizes":[],"default_left":[0,0,0,0,0,0,0,0,0,0,0,0,0,0,0],"id":5,"left_children":[1,3,5,7,9,11,13,-1,-1,-1,-1,-1,-1,-1,-1],"loss_changes":[9.319969E0,3.9419856E0,7.5302296E0,4.682068E0,1.8021252E0,4.97461E0,1.7341309E0,0E0,0E0,0E0,0E0,0E0,0E0,0E0,0E0],"parents":[2147483647,0,0,1,1,2,2,3,3,4,4,5,5,6,6],"right_children":[2,4,6,8,10,12,14,-1,-1,-1,-1,-1,-1,-1,-1],"split_conditions":[-8.7876745E-2,1.0845152E0,5.4285824E-1,-9.4262555E-2,-5.213229E-1,1.486271E-1,-2.050172E0,-1.0442982E-3,-1.7894363E-2,-5.036226E-3,1.7758202E-2,2.3041174E-2,-2.0097427E-3,-1.1605539E-2,2.0325745E-2],"split_indices":[7,5,9,1,3,7,4,0,0,0,0,0,0,0,0],"split_type":[0,0,0,0,0,0,0,0,0,0,0,0,0,0,0],"sum_hessian":[1.72E2,7.2E1,1E2,6.1E1,1.1E1,7.2E1,2.8E1,2.5E1,3.6E1,5E0,6E0,7E0,6.5E1,1E0,2.7E1],"tree_param":{"num_deleted":"0","num_feature":"10","num_nodes":"15","size_leaf_vector":"1"}},{"base_weights":[3.2139946E-2,-2.4615985E-1,2.0265922E-1,-3.6017576E-1,3.827405E-1,3.143663E-1,-2.654728E-1,5.421917E-4,-1.6656604E-2,1.2943388E-2,-8.34171E-4,-4.6171965E-3,1.3176164E-2,-3.6819395E-2,7.0322906E-3],"categories":[],"categories_nodes":[],"categories_segments":[],"categories_sizes":[],"default_left":[0,0,0,0,0,0,0,0,0,0,0,0,0,0,0],"id":6,"left_children":[1,3,5,7,9,11,13,-1,-1,-1,-1,-1,-1,-1,-1],"loss_changes":[7.7376738E0,4.583543E0,5.365116E0,3.9201255E0,2.1195626E-1,4.8612175E0,9.903837E0,0E0,0E0,0E0,0E0,0E0,0E0,0E0,0E0],"parents":[2147483647,0,0,1,1,2,2,3,3,4,4,5,5,6,6],"right_children":[2,4,6,8,10,12,14,-1,-1,-1,-1,-1,-1,-1,-1],"split_conditions":[-1.8249984E-1,1.1825308E0,8.605297E-1,-1.1419382E0,-2.5460818E-1,-9.8862714E-1,1.4363017E0,5.421917E-4,-1.6656604E-2,1.2943388E-2,-8.34171E-4,-4.6171965E-3,1.3176164E-2,-3.6819395E-2,7.0322906E-3],"split_indices":[7,0,6,7,2,9,6,0,0,0,0,0,0,0,0],"split_type":[0,0,0,0,0,0,0,0,0,0,0,0,0,0,0],"sum_hessian":[1.61E2,6.1E1,1E2,5.2E1,9E0,8.1E1,1.9E1,1.8E1,3.4E1,8E0,1E0,1.7E1,6.4E1,6E0,1.3E1],"tree_param":{"num_deleted":"0","num_feature":"10","num_nodes":"15","size_leaf_vector":"1"}},{"base_weights":[8.387979E-3,-3.11522E-1,1.9835046E-1,-6.009006E-1,1.8534457E-2,-8.423419E-2,3.8503277E-1,7.1198586E-4,-2.4303017E-2,8.807815E-3,-5.7868594E-3,-1.1519342E-2,3.6888302E-3,4.144392E-2,9.835223E-3],"categories":[],"categories_nodes":[],"categories_segments":[],"categories_sizes":[],"default_left":[0,0,0,0,0,0,0,0,0,0,0,0,0,0,0],"id":7,"left_children":[1,3,5,7,9,11,13,-1,-1,-1,-1,-1,-1,-1,-1],"loss_changes":[9.785133E0,5.741814E0,5.3605423E0,4.2007723E0,1.7431494E0,2.5935395E0,3.0233612E0,0E0,0E0,0E0,0E0,0E0,0E0,0E0,0E0],"parents":[2147483647,0,0,1,1,2,2,3,3,4,4,5,5,6,6],"right_children":[2,4,6,8,10,12,14,-1,-1,-1,-1,-1,-1,-1,-1],"split_conditions":[-1.8955551E-1,6.791317E-2,-4.4715765E-1,-1.1419382E0,-5.695454E-2,-4.5138445E-1,-3.9524415E-1,7.1198586E-4,-2.4303017E-2,8.807815E-3,-5.7868594E-3,-1.1519342E-2,3.6888302E-3,4.144392E-2,9.835223E-3],"split_indices":[7,0,3,7,3,0,3,0,0,0,0,0,0,0,0],"split_type":[0,0,0,0,0,0,0,0,0,0,0,0,0,0,0],"sum_hessian":[1.59E2,5.9E1,1E2,3.1E1,2.8E1,4E1,6E1,8E0,2.3E1,1.2E1,1.6E1,1.6E1,2.4E1,2E0,5.8E1],"tree_param":{"num_deleted":"0","num_feature":"10","num_nodes":"15","size_leaf_vector":"1"}},{"base_weights":[-1.9719027E-2,-1.0465944E-1,3.617283E-1,-1.260993E-1,3.991625E-2,1.8456379E-1,3.5256155E-2,1.04102865E-2,-5.7418323E-3,1.6232548E-2,-5.5846386E-3],"categories":[],"categories_nodes":[],"categories_segments":[],"categories_sizes":[],"default_left":[0,0,0,0,0,0,0,0,0,0,0],"id":8,"left_children":[1,3,5,7,-1,9,-1,-1,-1,-1,-1],"loss_changes":[5.1571045E0,4.1679482E0,3.962558E0,4.051445E0,0E0,3.4049494E0,0E0,0E0,0E0,0E0,0E0],"parents":[2147483647,0,0,1,1,2,2,3,3,5,5],"right_children":[2,4,6,8,-1,10,-1,-1,-1,-1,-1],"split_conditions":[7.454989E-1,2.3869517E0,7.601331E-1,-1.1401609E0,3.991625E-2,-2.993379E-1,3.5256155E-2,1.04102865E-2,-5.7418323E-3,1.6232548E-2,-5.5846386E-3],"split_indices":[9,0,6,8,0,2,0,0,0,0,0],"split_type":[0,0,0,0,0,0,0,0,0,0,0],"sum_hessian":[1.57E2,1.29E2,2.8E1,1.28E2,1E0,2.4E1,4E0,1.5E1,1.13E2,1.2E1,1.2E1],"tree_param":{"num_deleted":"0","num_feature":"10","num_nodes":"11","size_leaf_vector":"1"}},{"base_weights":[2.8859284E-2,-9.319783E-2,4.1218877E-1,-2.5461465E-1,2.2441682E-1,1.8690956E-1,6.896617E-1,-2.3641886E-2,-3.9244452E-3,1.6990682E-2,-2.5239224E-3,2.1771604E-2,-3.8355978E-3,2.3862751E-2,-3.1289083E-3],"categories":[],"categories_nodes":[],"categories_segments":[],"categories_sizes":[],"default_left":[0,0,0,0,0,0,0,0,0,0,0,0,0,0,0],"id":9,"left_children":[1,3,5,7,9,11,13,-1,-1,-1,-1,-1,-1,-1,-1],"loss_changes":[7.945602E0,6.6707563E0,2.4339595E0,5.5764174E0,4.689848E0,4.1631265E0,1.5944529E0,0E0,0E0,0E0,0E0,0E0,0E0,0E0,0E0],"parents":[2147483647,0,0,1,1,2,2,3,3,4,4,5,5,6,6],"right_children":[2,4,6,8,10,12,14,-1,-1,-1,-1,-1,-1,-1,-1],"split_conditions":[6.6266596E-1,3.1390822E-1,-1.9198532E-3,-9.024231E-1,-1.1420989E-1,-6.225402E-1,1.226293E0,-2.3641886E-2,-3.9244452E-3,1.6990682E-2,-2.5239224E-3,2.1771604E-2,-3.8355978E-3,2.3862751E-2,-3.1289083E-3],"split_indices":[9,0,8,2,5,2,5,0,0,0,0,0,0,0,0],"split_type":[0,0,0,0,0,0,0,0,0,0,0,0,0,0,0],"sum_hessian":[1.68E2,1.28E2,4E1,8.5E1,4.3E1,2.3E1,1.7E1,1.5E1,7E1,2E1,2.3E1,8E0,1.5E1,1.5E1,2E0],"tree_param":{"num_deleted":"0","num_feature":"10","num_nodes":"15","size_leaf_vector":"1"}},{"base_weights":[1.0365416E-2,-9.622304E-2,3.7632662E-1,6.057317E-2,-3.4464347E-1,2.4739534E-2,6.1983335E-1,-5.425287E-3,9.738496E-3,-2.853893E-2,-3.5409948E-3,1.0816528E-2,-1.1943516E-2,2.9364398E-2,6.2760175E-3],"categories":[],"categories_nodes":[],"categories_segments":[],"categories_sizes":[],"default_left":[0,0,0,0,0,0,0,0,0,0,0,0,0,0,0],"id":10,"left_children":[1,3,5,7,9,11,13,-1,-1,-1,-1,-1,-1,-1,-1],"loss_changes":[6.7454567E0,5.240361E0,3.3236036E0,5.3494825E0,7.036369E0,2.5575435E0,3.1856384E0,0E0,0E0,0E0,0E0,0E0,0E0,0E0,0E0],"parents":[2147483647,0,0,1,1,2,2,3,3,4,4,5,5,6,6],"right_children":[2,4,6,8,10,12,14,-1,-1,-1,-1,-1,-1,-1,-1],"split_conditions":[7.454989E-1,2.4537101E-1,-2.716744E-1,-5.1218667E-3,5.0304866E-1,2.0279728E-1,4.0982845E-1,-5.425287E-3,9.738496E-3,-2.853893E-2,-3.5409948E-3,1.0816528E-2,-1.1943516E-2,2.9364398E-2,6.2760175E-3],"split_indices":[9,1,1,8,1,5,2,0,0,0,0,0,0,0,0],"split_type":[0,0,0,0,0,0,0,0,0,0,0,0,0,0,0],"sum_hessian":[1.71E2,1.33E2,3.8E1,8.2E1,5.1E1,1.6E1,2.2E1,4.3E1,3.9E1,1.3E1,3.8E1,9E0,7E0,1.1E1,1.1E1],"tree_param":{"num_deleted":"0","num_feature":"10","num_nodes":"15","size_leaf_vector":"1"}},{"base_weights":[-2.4349917E-2,-1.8258981E-1,1.8148921E-1,-1.2757991E-1,-1.0592363E0,-1.8620772E-2,4.786381E-1,-1.3897584E-2,-4.0991596E-4,-3.7903875E-2,-3.6349704E-3,-3.7050603E-3,2.9472187E-2,7.589915E-3,2.948732E-2],"categories":[],"categories_nodes":[],"categories_segments":[],"categories_sizes":[],"default_left":[0,0,0,0,0,0,0,0,0,0,0,0,0,0,0],"id":11,"left_children":[1,3,5,7,9,11,13,-1,-1,-1,-1,-1,-1,-1,-1],"loss_changes":[5.0166483E0,4.0603714E0,3.9928973E0,3.167468E0,8.048048E-1,4.425876E0,2.8235092E0,0E0,0E0,0E0,0E0,0E0,0E0,0E0,0E0],"parents":[2147483647,0,0,1,1,2,2,3,3,4,4,5,5,6,6],"right_children":[2,4,6,8,10,12,14,-1,-1,-1,-1,-1,-1,-1,-1],"split_conditions":[5.3481627E-2,1.4038213E0,7.0419125E-2,-8.881339E-1,3.28662E-1,1.1903057E0,6.57888E-1,-1.3897584E-2,-4.0991596E-4,-3.7903875E-2,-3.6349704E-3,-3.7050603E-3,2.9472187E-2,7.589915E-3,2.948732E-2],"split_indices":[0,4,9,4,1,4,7,0,0,0,0,0,0,0,0],"split_type":[0,0,0,0,0,0,0,0,0,0,0,0,0,0,0],"sum_hessian":[1.52E2,8.6E1,6.6E1,8.2E1,4E0,4E1,2.6E1,2E1,6.2E1,3E0,1E0,3.7E1,3E0,1.9E1,7E0],"tree_param":{"num_deleted":"0","num_feature":"10","num_nodes":"15","size_leaf_vector":"1"}},{"base_weights":[2.768092E-2,-8.457856E-2,3.6652225E-1,9.567056E-2,-4.0314192E-1,-1.0119381E-1,5.012297E-1,-7.013371E-3,8.326867E-3,-1.487692E-2,8.472542E-3,2.2595188E-2,-8.3942795E-3,7.907961E-4,2.3545008E-2],"categories":[],"categories_nodes":[],"categories_segments":[],"categories_sizes":[],"default_left":[0,0,0,0,0,0,0,0,0,0,0,0,0,0,0],"id":12,"left_children":[1,3,5,7,9,11,13,-1,-1,-1,-1,-1,-1,-1,-1],"loss_changes":[6.269257E0,7.158744E0,2.6339197E0,4.85882E0,3.001574E0,1.7367764E0,4.28891E0,0E0,0E0,0E0,0E0,0E0,0E0,0E0,0E0],"parents":[2147483647,0,0,1,1,2,2,3,3,4,4,5,5,6,6],"right_children":[2,4,6,8,10,12,14,-1,-1,-1,-1,-1,-1,-1,-1],"split_conditions":[6.6266596E-1,2.82587E-1,-6.366153E-1,-4.5138445E-1,9.629606E-1,-1.3906854E0,-5.292723E-1,-7.013371E-3,8.326867E-3,-1.487692E-2,8.472542E-3,2.2595188E-2,-8.3942795E-3,7.907961E-4,2.3545008E-2],"split_indices":[9,6,4,0,0,2,7,0,0,0,0,0,0,0,0],"split_type":[0,0,0,0,0,0,0,0,0,0,0,0,0,0,0],"sum_hessian":[1.63E2,1.23E2,4E1,7.9E1,4.4E1,9E0,3.1E1,2.8E1,5.1E1,3.9E1,5E0,1E0,8E0,1.2E1,1.9E1],"tree_param":{"num_deleted":"0","num_feature":"10","num_nodes":"15","size_leaf_vector":"1"}},{"base_weights":[-1.9555483E-2,-2.431414E-1,1.2894085E-1,-1.41281E-1,-8.6124164E-1,-6.5668084E-2,3.503611E-1,4.292451E-3,-8.965729E-3,-7.909568E-3,-2.9829506E-2,1.1263492E-2,-9.097674E-3,2.484067E-2,-4.9315084E-4],"categories":[],"categories_nodes":[],"categories_segments":[],"categories_sizes":[],"default_left":[0,0,0,0,0,0,0,0,0,0,0,0,0,0,0],"id":13,"left_children":[1,3,5,7,9,11,13,-1,-1,-1,-1,-1,-1,-1,-1],"loss_changes":[5.4100246E0,3.9707193E0,4.245863E0,2.5968695E0,4.535656E-1,5.668479E0,8.073082E0,0E0,0E0,0E0,0E0,0E0,0E0,0E0,0E0],"parents":[2147483647,0,0,1,1,2,2,3,3,4,4,5,5,6,6],"right_children":[2,4,6,8,10,12,14,-1,-1,-1,-1,-1,-1,-1,-1],"split_conditions":[-1.8249984E-1,-3.3903307E-1,-1.9198532E-3,-1.738377E-1,-1.0012914E0,-5.4255784E-1,6.7891353E-1,4.292451E-3,-8.965729E-3,-7.909568E-3,-2.9829506E-2,1.1263492E-2,-9.097674E-3,2.484067E-2,-4.9315084E-4],"split_indices":[7,7,8,2,1,2,8,0,0,0,0,0,0,0,0],"split_type":[0,0,0,0,0,0,0,0,0,0,0,0,0,0,0],"sum_hessian":[1.61E2,6.4E1,9.7E1,5.6E1,8E0,5.2E1,4.5E1,2E1,3.6E1,2E0,6E0,1.8E1,3.4E1,1.9E1,2.6E1],"tree_param":{"num_deleted":"0","num_feature":"10","num_nodes":"15","size_leaf_vector":"1"}},{"base_weights":[4.371666E-2,-2.0398274E-1,1.980734E-1,-1.018037E-1,-8.55421E-1,6.9464666E-1,1.1192763E-1,-6.9183814E-3,1.0725346E-2,-7.7513764E-3,-3.0341152E-2,7.946991E-3,4.2456336E-2,2.1900047E-2,5.177984E-4],"categories":[],"categories_nodes":[],"categories_segments":[],"categories_sizes":[],"default_left":[0,0,0,0,0,0,0,0,0,0,0,0,0,0,0],"id":14,"left_children":[1,3,5,7,9,11,13,-1,-1,-1,-1,-1,-1,-1,-1],"loss_changes":[5.9666843E0,3.9067154E0,4.028908E0,3.2181358E0,4.8355532E-1,3.9603562E0,4.843865E0,0E0,0E0,0E0,0E0,0E0,0E0,0E0,0E0],"parents":[2147483647,0,0,1,1,2,2,3,3,4,4,5,5,6,6],"right_children":[2,4,6,8,10,12,14,-1,-1,-1,-1,-1,-1,-1,-1],"split_conditions":[-1.8249984E-1,-3.3903307E-1,3.6059927E-2,8.454831E-1,-1.0012914E0,-5.630971E-4,-1.3681592E0,-6.9183814E-3,1.0725346E-2,-7.7513764E-3,-3.0341152E-2,7.946991E-3,4.2456336E-2,2.1900047E-2,5.177984E-4],"split_indices":[7,7,7,5,1,7,8,0,0,0,0,0,0,0,0],"split_type":[0,0,0,0,0,0,0,0,0,0,0,0,0,0,0],"sum_hessian":[1.54E2,5.9E1,9.5E1,5.2E1,7E0,1.3E1,8.2E1,4.1E1,1.1E1,2E0,5E0,9E0,4E0,1E1,7.2E1],"tree_param":{"num_deleted":"0","num_feature":"10","num_nodes":"15","size_leaf_vector":"1"}},{"base_weights":[2.4389986E-2,-1.3744402E-1,3.3584478E-1,-8.89594E-2,-8.1044644E-1,-1.3351731E-1,5.8727247E-1,-6.2776334E-4,-1.912541E-2,-3.0490715E-2,-5.9133926E-3,-1.1685896E-2,6.6800397E-3,6.6758003E-3,2.4278058E-2],"categories":[],"categories_nodes":[],"categories_segments":[],"categories_sizes":[],"default_left":[0,0,0,0,0,0,0,0,0,0,0,0,0,0,0],"id":15,"left_children":[1,3,5,7,9,11,13,-1,-1,-1,-1,-1,-1,-1,-1],"loss_changes":[8.110796E0,3.3867106E0,6.5689964E0,3.7186918E0,6.837063E-1,1.910494E0,2.7349138E0,0E0,0E0,0E0,0E0,0E0,0E0,0E0,0E0],"parents":[2147483647,0,0,1,1,2,2,3,3,4,4,5,5,6,6],"right_children":[2,4,6,8,10,12,14,-1,-1,-1,-1,-1,-1,-1,-1],"split_conditions":[3.788426E-1,1.7286977E0,-8.861394E-2,1.8797359E-1,3.6059168E-1,-3.9706282E-2,-2.1993579E-1,-6.2776334E-4,-1.912541E-2,-3.0490715E-2,-5.9133926E-3,-1.1685896E-2,6.6800397E-3,6.6758003E-3,2.4278058E-2],"split_indices":[9,2,7,9,1,0,1,0,0,0,0,0,0,0,0],"split_type":[0,0,0,0,0,0,0,0,0,0,0,0,0,0,0],"sum_hessian":[1.59E2,1.05E2,5.4E1,9.9E1,6E0,1.9E1,3.5E1,8.9E1,1E1,4E0,2E0,1.1E1,8E0,1.4E1,2.1E1],"tree_param":{"num_deleted":"0","num_feature":"10","num_nodes":"15","size_leaf_vector":"1"}},{"base_weights":[-2.078595E-2,-3.0940664E-1,1.4903018E-1,-4.236117E-1,3.4675503E-1,-2.0190045E-1,2.7368528E-1,-1.4292335E-2,1.6343532E-2,1.2366548E-3,1.2844842E-2,-3.023573E-2,-1.5886714E-3,1.4867192E-2,3.1018388E-3],"categories":[],"categories_nodes":[],"categories_segments":[],"categories_sizes":[],"default_left":[0,0,0,0,0,0,0,0,0,0,0,0,0,0,0],"id":16,"left_children":[1,3,5,7,9,11,13,-1,-1,-1,-1,-1,-1,-1,-1],"loss_changes":[7.545016E0,4.4182973E0,4.2985506E0,2.7649527E0,2.0620155E-1,3.067748E0,2.66931E0,0E0,0E0,0E0,0E0,0E0,0E0,0E0,0E0],"parents":[2147483647,0,0,1,1,2,2,3,3,4,4,5,5,6,6],"right_children":[2,4,6,8,10,12,14,-1,-1,-1,-1,-1,-1,-1,-1],"split_conditions":[-2.0291398E-1,1.1825308E0,-7.1355397E-1,1.4849188E0,-8.1975394E-1,-1.5895675E0,3.8495097E-1,-1.4292335E-2,1.6343532E-2,1.2366548E-3,1.2844842E-2,-3.023573E-2,-1.5886714E-3,1.4867192E-2,3.1018388E-3],"split_indices":[7,0,3,8,8,2,7,0,0,0,0,0,0,0,0],"split_type":[0,0,0,0,0,0,0,0,0,0,0,0,0,0,0],"sum_hessian":[1.52E2,5.6E1,9.6E1,4.8E1,8E0,2.5E1,7.1E1,4.6E1,2E0,2E0,6E0,3E0,2.2E1,3E1,4.1E1],"tree_param":{"num_deleted":"0","num_feature":"10","num_nodes":"15","size_leaf_vector":"1"}},{"base_weights":[-6.7187794E-3,2.5662318E-2,-9.962366E-1,-1.4594282E-1,1.8000197E-1,-7.828003E-3,-3.344487E-2,4.439949E-3,-1.1764326E-2,1.2525674E-2,-5.787817E-4],"categories":[],"categories_nodes":[],"categories_segments":[],"categories_sizes":[],"default_left":[0,0,0,0,0,0,0,0,0,0,0],"id":17,"left_children":[1,3,5,7,9,-1,-1,-1,-1,-1,-1],"loss_changes":[5.0561085E0,4.078548E0,1.451106E-1,5.3409524E0,3.8423183E0,0E0,0E0,0E0,0E0,0E0,0E0],"parents":[2147483647,0,0,1,1,2,2,3,3,4,4],"right_children":[2,4,6,8,10,-1,-1,-1,-1,-1,-1],"split_conditions":[2.0487556E0,-1.9076046E-1,-1.2348131E0,-1.2319293E-2,-1.1420989E-1,-7.828003E-3,-3.344487E-2,4.439949E-3,-1.1764326E-2,1.2525674E-2,-5.787817E-4],"split_indices":[3,4,0,6,5,0,0,0,0,0,0],"split_type":[0,0,0,0,0,0,0,0,0,0,0],"sum_hessian":[1.56E2,1.52E2,4E0,7.2E1,8E1,1E0,3E0,3.3E1,3.9E1,3.6E1,4.4E1],"tree_param":{"num_deleted":"0","num_feature":"10","num_nodes":"11","size_leaf_vector":"1"}},{"base_weights":[7.6972563E-3,-2.7906906E-2,6.9656575E-1,-4.5840728E-1,3.2001223E-2,3.213186E-2,2.576556E-1,-1.0263391E-3,-2.109012E-2,1.5667824E-2,-1.2541316E-3,1.9391477E-3,1.0943632E-2],"categories":[],"categories_nodes":[],"categories_segments":[],"categories_sizes":[],"default_left":[0,0,0,0,0,0,0,0,0,0,0,0,0],"id":18,"left_children":[1,3,5,7,9,-1,11,-1,-1,-1,-1,-1,-1],"loss_changes":[3.9927459E0,4.012193E0,1.0389965E0,1.9473305E0,4.9790277E0,0E0,7.9812616E-2,0E0,0E0,0E0,0E0,0E0,0E0],"parents":[2147483647,0,0,1,1,2,2,3,3,4,4,6,6],"right_children":[2,4,6,8,10,-1,12,-1,-1,-1,-1,-1,-1],"split_conditions":[1.610937E0,-1.1001356E0,-6.919337E-1,-1.5980524E0,-7.2522604E-1,3.213186E-2,-3.329474E-2,-1.0263391E-3,-2.109012E-2,1.5667824E-2,-1.2541316E-3,1.9391477E-3,1.0943632E-2],"split_indices":[0,1,5,1,1,0,6,0,0,0,0,0,0],"split_type":[0,0,0,0,0,0,0,0,0,0,0,0,0],"sum_hessian":[1.61E2,1.54E2,7E0,1.8E1,1.36E2,3E0,4E0,7E0,1.1E1,1.7E1,1.19E2,2E0,2E0],"tree_param":{"num_deleted":"0","num_feature":"10","num_nodes":"13","size_leaf_vector":"1"}},{"base_weights":[9.75682E-3,-1.12244725E-1,1.9938214E-1,-5.007994E-1,5.0331414E-2,8.264292E-1,9.3149304E-2,6.9365064E-3,-1.7824674E-2,2.8183844E-3,-2.865139E-2,2.8441655E-2,8.0147665E-3,-6.737382E-4,2.3254473E-2],"categories":[],"categories_nodes":[],"categories_segments":[],"categories_sizes":[],"default_left":[0,0,0,0,0,0,0,0,0,0,0,0,0,0,0],"id":19,"left_children":[1,3,5,7,9,11,13,-1,-1,-1,-1,-1,-1,-1,-1],"loss_changes":[3.7239127E0,6.215838E0,4.1196365E0,2.1191926E0,3.1591725E0,3.5891485E-1,4.3538346E0,0E0,0E0,0E0,0E0,0E0,0E0,0E0,0E0],"parents":[2147483647,0,0,1,1,2,2,3,3,4,4,5,5,6,6],"right_children":[2,4,6,8,10,12,14,-1,-1,-1,-1,-1,-1,-1,-1],"split_conditions":[6.791317E-2,-6.2758756E-1,-1.4419787E0,-1.5006694E0,1.7982877E0,4.4781372E-1,1.1289911E0,6.9365064E-3,-1.7824674E-2,2.8183844E-3,-2.865139E-2,2.8441655E-2,8.0147665E-3,-6.737382E-4,2.3254473E-2],"split_indices":[0,3,3,0,3,0,3,0,0,0,0,0,0,0,0],"split_type":[0,0,0,0,0,0,0,0,0,0,0,0,0,0,0],"sum_hessian":[1.59E2,9.7E1,6.2E1,2.8E1,6.9E1,8E0,5.4E1,3E0,2.5E1,6.7E1,2E0,6E0,2E0,4.7E1,7E0],"tree_param":{"num_deleted":"0","num_feature":"10","num_nodes":"15","size_leaf_vector":"1"}}]},"name":"gbtree"},"learner_model_param":{"base_score":"[4.585404E-3]","boost_from_average":"1","num_class":"0","num_feature":"10","num_target":"1"},"objective":{"name":"reg:squarederror","reg_loss_param":{"scale_pos_weight":"1"}}},"version":[3,2,0]}